FANN_FLO_2.1
num_layers=3
learning_rate=0.010000
connection_rate=1.000000
network_type=0
learning_momentum=0.010000
training_algorithm=0
train_error_function=1
train_stop_function=0
cascade_output_change_fraction=0.010000
quickprop_decay=-0.000100
quickprop_mu=1.750000
rprop_increase_factor=1.200000
rprop_decrease_factor=0.500000
rprop_delta_min=0.000000
rprop_delta_max=50.000000
rprop_delta_zero=0.100000
cascade_output_stagnation_epochs=12
cascade_candidate_change_fraction=0.010000
cascade_candidate_stagnation_epochs=12
cascade_max_out_epochs=150
cascade_min_out_epochs=50
cascade_max_cand_epochs=150
cascade_min_cand_epochs=50
cascade_num_candidate_groups=2
bit_fail_limit=3.49999994039535522461e-01
cascade_candidate_limit=1.00000000000000000000e+03
cascade_weight_multiplier=4.00000005960464477539e-01
cascade_activation_functions_count=10
cascade_activation_functions=3 5 7 8 10 11 14 15 16 17 
cascade_activation_steepnesses_count=4
cascade_activation_steepnesses=2.50000000000000000000e-01 5.00000000000000000000e-01 7.50000000000000000000e-01 1.00000000000000000000e+00 
layer_sizes=9 11 2 
scale_included=0
neurons (num_inputs, activation_function, activation_steepness)=(0, 0, 0.00000000000000000000e+00) (0, 0, 0.00000000000000000000e+00) (0, 0, 0.00000000000000000000e+00) (0, 0, 0.00000000000000000000e+00) (0, 0, 0.00000000000000000000e+00) (0, 0, 0.00000000000000000000e+00) (0, 0, 0.00000000000000000000e+00) (0, 0, 0.00000000000000000000e+00) (0, 0, 0.00000000000000000000e+00) (9, 18, 5.00000000000000000000e-01) (9, 18, 5.00000000000000000000e-01) (9, 18, 5.00000000000000000000e-01) (9, 18, 5.00000000000000000000e-01) (9, 18, 5.00000000000000000000e-01) (9, 18, 5.00000000000000000000e-01) (9, 18, 5.00000000000000000000e-01) (9, 18, 5.00000000000000000000e-01) (9, 18, 5.00000000000000000000e-01) (9, 18, 5.00000000000000000000e-01) (0, 18, 0.00000000000000000000e+00) (11, 0, 5.00000000000000000000e-01) (0, 0, 0.00000000000000000000e+00) 
connections (connected_to_neuron, weight)=(0, 4.02905017137527465820e-01) (1, 3.73906046152114868164e-01) (2, -3.16001862287521362305e-01) (3, -2.69177913665771484375e-01) (4, -2.24367246031761169434e-01) (5, -4.41636800765991210938e-01) (6, -1.61014258861541748047e-01) (7, -3.01780141890048980713e-02) (8, 4.62745308876037597656e-01) (0, 1.37154096737504005432e-02) (1, 8.09669375419616699219e-01) (2, 1.98765739798545837402e-01) (3, 4.49836999177932739258e-02) (4, -5.92813968658447265625e-01) (5, 3.37852805852890014648e-01) (6, -6.20458126068115234375e-01) (7, -3.98097485303878784180e-01) (8, 4.07346636056900024414e-01) (0, -1.30416601896286010742e-02) (1, 9.79310944676399230957e-02) (2, 1.87290534377098083496e-01) (3, 1.72891646623611450195e-01) (4, -1.80141061544418334961e-01) (5, 2.18225479125976562500e-01) (6, -3.48750911653041839600e-02) (7, -8.41269671916961669922e-01) (8, 1.00230075418949127197e-01) (0, -1.21033094823360443115e-01) (1, -3.34660261869430541992e-01) (2, -3.32184672355651855469e-01) (3, -6.36358261108398437500e-02) (4, 4.19992506504058837891e-01) (5, -3.42260658740997314453e-01) (6, 8.61427038908004760742e-02) (7, 1.30990818142890930176e-01) (8, -1.32099300622940063477e-01) (0, 5.66653490066528320312e-01) (1, -4.22235913574695587158e-02) (2, 5.60945689678192138672e-01) (3, 1.96448430418968200684e-01) (4, -6.22179269790649414062e-01) (5, -1.92468538880348205566e-01) (6, 4.14949059486389160156e-01) (7, 4.73943293094635009766e-01) (8, 2.24585589021444320679e-02) (0, 6.47804975509643554688e-01) (1, 1.32010534405708312988e-01) (2, -7.81332433223724365234e-01) (3, -2.98993378877639770508e-01) (4, 8.51061008870601654053e-03) (5, 6.55134856700897216797e-01) (6, -2.96033591032028198242e-01) (7, -4.36997056007385253906e-01) (8, 2.88458943367004394531e-01) (0, 3.47226798534393310547e-01) (1, -2.96640694141387939453e-01) (2, -9.08032894134521484375e-01) (3, -1.51977047324180603027e-01) (4, 1.91316723823547363281e-01) (5, -1.33933827280998229980e-01) (6, 3.70780706405639648438e-01) (7, 4.28543426096439361572e-02) (8, -4.79568578302860260010e-02) (0, -8.70522409677505493164e-02) (1, 1.68582841753959655762e-01) (2, 3.00254344940185546875e-01) (3, -2.16568753123283386230e-01) (4, -5.66046118736267089844e-01) (5, 2.56184116005897521973e-02) (6, 4.22893017530441284180e-01) (7, -4.94045853614807128906e-01) (8, 1.80991277098655700684e-01) (0, 5.63533604145050048828e-01) (1, 1.13265371322631835938e+00) (2, -5.71511313319206237793e-02) (3, -7.15347975492477416992e-02) (4, 1.00920639932155609131e-01) (5, -2.80974715948104858398e-01) (6, 6.78893327713012695312e-01) (7, 6.74542605876922607422e-01) (8, 8.84339865297079086304e-03) (0, -4.39199954271316528320e-01) (1, 4.55699637532234191895e-02) (2, -7.58937478065490722656e-01) (3, -1.06152892112731933594e-01) (4, 3.66883069276809692383e-01) (5, 3.38076651096343994141e-01) (6, -2.50124603509902954102e-01) (7, -3.39182987809181213379e-02) (8, -1.58461753017036244273e-05) (9, -5.82189559936523437500e-01) (10, -5.66133379936218261719e-01) (11, -1.47753909230232238770e-01) (12, -5.30901134014129638672e-01) (13, 3.19958984851837158203e-01) (14, -3.42396795749664306641e-01) (15, 1.00818455219268798828e-01) (16, -3.73081296682357788086e-01) (17, 9.54544663429260253906e-01) (18, -6.72537740319967269897e-03) (19, 3.15752536058425903320e-01) 
