FANN_FLO_2.1
num_layers=3
learning_rate=0.010000
connection_rate=1.000000
network_type=0
learning_momentum=0.010000
training_algorithm=0
train_error_function=1
train_stop_function=0
cascade_output_change_fraction=0.010000
quickprop_decay=-0.000100
quickprop_mu=1.750000
rprop_increase_factor=1.200000
rprop_decrease_factor=0.500000
rprop_delta_min=0.000000
rprop_delta_max=50.000000
rprop_delta_zero=0.100000
cascade_output_stagnation_epochs=12
cascade_candidate_change_fraction=0.010000
cascade_candidate_stagnation_epochs=12
cascade_max_out_epochs=150
cascade_min_out_epochs=50
cascade_max_cand_epochs=150
cascade_min_cand_epochs=50
cascade_num_candidate_groups=2
bit_fail_limit=3.49999994039535522461e-01
cascade_candidate_limit=1.00000000000000000000e+03
cascade_weight_multiplier=4.00000005960464477539e-01
cascade_activation_functions_count=10
cascade_activation_functions=3 5 7 8 10 11 14 15 16 17 
cascade_activation_steepnesses_count=4
cascade_activation_steepnesses=2.50000000000000000000e-01 5.00000000000000000000e-01 7.50000000000000000000e-01 1.00000000000000000000e+00 
layer_sizes=9 11 2 
scale_included=0
neurons (num_inputs, activation_function, activation_steepness)=(0, 0, 0.00000000000000000000e+00) (0, 0, 0.00000000000000000000e+00) (0, 0, 0.00000000000000000000e+00) (0, 0, 0.00000000000000000000e+00) (0, 0, 0.00000000000000000000e+00) (0, 0, 0.00000000000000000000e+00) (0, 0, 0.00000000000000000000e+00) (0, 0, 0.00000000000000000000e+00) (0, 0, 0.00000000000000000000e+00) (9, 18, 5.00000000000000000000e-01) (9, 18, 5.00000000000000000000e-01) (9, 18, 5.00000000000000000000e-01) (9, 18, 5.00000000000000000000e-01) (9, 18, 5.00000000000000000000e-01) (9, 18, 5.00000000000000000000e-01) (9, 18, 5.00000000000000000000e-01) (9, 18, 5.00000000000000000000e-01) (9, 18, 5.00000000000000000000e-01) (9, 18, 5.00000000000000000000e-01) (0, 18, 0.00000000000000000000e+00) (11, 0, 5.00000000000000000000e-01) (0, 0, 0.00000000000000000000e+00) 
connections (connected_to_neuron, weight)=(0, -2.34865695238113403320e-01) (1, -2.29722052812576293945e-01) (2, 1.63960251957178115845e-02) (3, 1.47101923823356628418e-01) (4, 4.69891726970672607422e-01) (5, 2.36578524112701416016e-01) (6, 4.14281845092773437500e-01) (7, 1.16842305660247802734e+00) (8, -6.69881468638777732849e-03) (0, 2.53662079572677612305e-01) (1, 3.65489482879638671875e-01) (2, 2.05685898661613464355e-01) (3, 3.78402601927518844604e-03) (4, 3.65104317665100097656e-01) (5, -2.53252476453781127930e-01) (6, -4.08520996570587158203e-01) (7, -1.12271070480346679688e-01) (8, 2.45943963527679443359e-01) (0, -5.39426267147064208984e-01) (1, 2.51949340105056762695e-01) (2, 4.39845174551010131836e-01) (3, 1.59825146198272705078e-01) (4, 6.51363193988800048828e-01) (5, 7.23405003547668457031e-01) (6, 3.20711910724639892578e-01) (7, -4.94182109832763671875e-01) (8, 4.16183173656463623047e-01) (0, 3.49112302064895629883e-01) (1, 4.20272588729858398438e-01) (2, 1.75041221082210540771e-02) (3, 4.05691146850585937500e-01) (4, 7.11310878396034240723e-02) (5, 3.28170768916606903076e-02) (6, 2.28027805685997009277e-01) (7, 7.14680969715118408203e-01) (8, -5.17892884090542793274e-03) (0, -1.75484165549278259277e-01) (1, 6.54922485351562500000e-01) (2, 3.98108184337615966797e-01) (3, 5.90017497539520263672e-01) (4, -2.65801757574081420898e-01) (5, 1.65601670742034912109e-01) (6, 3.73954713344573974609e-01) (7, 6.76874592900276184082e-02) (8, 1.19677558541297912598e-02) (0, 1.41807040199637413025e-02) (1, -8.28409641981124877930e-02) (2, -1.96656398475170135498e-02) (3, -7.98414424061775207520e-02) (4, -5.26507616043090820312e-01) (5, 1.82992443442344665527e-01) (6, -1.40169829130172729492e-01) (7, 3.76674741506576538086e-01) (8, 3.98353375494480133057e-02) (0, 5.38733601570129394531e-02) (1, -1.24808505177497863770e-01) (2, 4.75032299757003784180e-01) (3, 8.86742472648620605469e-01) (4, -8.58725979924201965332e-02) (5, -5.82533419132232666016e-01) (6, -8.49629998207092285156e-01) (7, 1.26878485083580017090e-01) (8, -1.83443143963813781738e-01) (0, -7.63162791728973388672e-01) (1, -5.84622144699096679688e-01) (2, 3.14338296651840209961e-01) (3, 2.50731229782104492188e-01) (4, -3.58426064252853393555e-01) (5, 1.30502864718437194824e-01) (6, 1.33407756686210632324e-01) (7, -2.56612807512283325195e-01) (8, 1.63447469472885131836e-01) (0, 1.19074575603008270264e-01) (1, -2.90357321500778198242e-02) (2, 8.19646269083023071289e-02) (3, -3.23031723499298095703e-01) (4, -1.47357329726219177246e-01) (5, 2.99640148878097534180e-01) (6, -5.33869743347167968750e-01) (7, -4.28827673196792602539e-01) (8, 4.35260385274887084961e-01) (0, 1.24503530561923980713e-01) (1, 1.18565866723656654358e-02) (2, -8.49350914359092712402e-02) (3, 2.48185649514198303223e-01) (4, -4.16751623153686523438e-01) (5, 1.71824902296066284180e-01) (6, -2.43779987096786499023e-01) (7, -7.45064616203308105469e-02) (8, -5.11329285800457000732e-02) (9, 7.65359342098236083984e-01) (10, -3.77392679452896118164e-01) (11, -5.62359094619750976562e-01) (12, 8.04752886295318603516e-01) (13, 4.51702475547790527344e-01) (14, 1.27425298094749450684e-01) (15, -9.81982201337814331055e-02) (16, -2.60761350393295288086e-01) (17, -4.55641835927963256836e-01) (18, -1.57395258545875549316e-01) (19, 3.20961982011795043945e-01) 
