FANN_FLO_2.1
num_layers=3
learning_rate=0.010000
connection_rate=1.000000
network_type=0
learning_momentum=0.010000
training_algorithm=0
train_error_function=1
train_stop_function=0
cascade_output_change_fraction=0.010000
quickprop_decay=-0.000100
quickprop_mu=1.750000
rprop_increase_factor=1.200000
rprop_decrease_factor=0.500000
rprop_delta_min=0.000000
rprop_delta_max=50.000000
rprop_delta_zero=0.100000
cascade_output_stagnation_epochs=12
cascade_candidate_change_fraction=0.010000
cascade_candidate_stagnation_epochs=12
cascade_max_out_epochs=150
cascade_min_out_epochs=50
cascade_max_cand_epochs=150
cascade_min_cand_epochs=50
cascade_num_candidate_groups=2
bit_fail_limit=3.49999994039535522461e-01
cascade_candidate_limit=1.00000000000000000000e+03
cascade_weight_multiplier=4.00000005960464477539e-01
cascade_activation_functions_count=10
cascade_activation_functions=3 5 7 8 10 11 14 15 16 17 
cascade_activation_steepnesses_count=4
cascade_activation_steepnesses=2.50000000000000000000e-01 5.00000000000000000000e-01 7.50000000000000000000e-01 1.00000000000000000000e+00 
layer_sizes=9 11 2 
scale_included=0
neurons (num_inputs, activation_function, activation_steepness)=(0, 0, 0.00000000000000000000e+00) (0, 0, 0.00000000000000000000e+00) (0, 0, 0.00000000000000000000e+00) (0, 0, 0.00000000000000000000e+00) (0, 0, 0.00000000000000000000e+00) (0, 0, 0.00000000000000000000e+00) (0, 0, 0.00000000000000000000e+00) (0, 0, 0.00000000000000000000e+00) (0, 0, 0.00000000000000000000e+00) (9, 18, 5.00000000000000000000e-01) (9, 18, 5.00000000000000000000e-01) (9, 18, 5.00000000000000000000e-01) (9, 18, 5.00000000000000000000e-01) (9, 18, 5.00000000000000000000e-01) (9, 18, 5.00000000000000000000e-01) (9, 18, 5.00000000000000000000e-01) (9, 18, 5.00000000000000000000e-01) (9, 18, 5.00000000000000000000e-01) (9, 18, 5.00000000000000000000e-01) (0, 18, 0.00000000000000000000e+00) (11, 0, 5.00000000000000000000e-01) (0, 0, 0.00000000000000000000e+00) 
connections (connected_to_neuron, weight)=(0, 7.18650996685028076172e-01) (1, -2.88341939449310302734e-01) (2, 1.23494630679488182068e-02) (3, 6.14355504512786865234e-01) (4, 5.92230297625064849854e-02) (5, -3.07204782962799072266e-01) (6, -2.88316696882247924805e-01) (7, -3.94530326128005981445e-01) (8, 2.18210741877555847168e-02) (0, 1.74974650144577026367e-01) (1, 3.24008837342262268066e-02) (2, -8.44150781631469726562e-02) (3, 9.09341946244239807129e-02) (4, 3.83677393198013305664e-01) (5, -1.18151448667049407959e-01) (6, 5.43943084776401519775e-02) (7, 2.15383499860763549805e-01) (8, -1.84437453746795654297e-01) (0, 4.32522557675838470459e-02) (1, -2.60350573807954788208e-02) (2, -4.71190124750137329102e-01) (3, 4.45854775607585906982e-02) (4, -4.14366990327835083008e-01) (5, 2.42976248264312744141e-02) (6, 2.68617626279592514038e-02) (7, -2.75993287563323974609e-01) (8, -3.82915022782981395721e-04) (0, -2.89992570877075195312e-01) (1, 1.02265924215316772461e-01) (2, 6.86889961361885070801e-02) (3, 2.02296506613492965698e-02) (4, 4.26028370857238769531e-01) (5, 5.33684790134429931641e-01) (6, -4.06351417303085327148e-01) (7, -3.57159152626991271973e-02) (8, -5.21357990801334381104e-02) (0, 2.06064611673355102539e-01) (1, 5.53015708923339843750e-01) (2, 3.37082535028457641602e-01) (3, 1.38324901461601257324e-01) (4, -3.16778957843780517578e-01) (5, 3.52127701044082641602e-01) (6, 6.50608718395233154297e-01) (7, 7.02891647815704345703e-01) (8, 3.24014201760292053223e-02) (0, 2.35779896378517150879e-01) (1, 4.74985092878341674805e-01) (2, -3.94940555095672607422e-01) (3, 3.00623208284378051758e-01) (4, 2.36427500844001770020e-01) (5, -4.57458168268203735352e-01) (6, -8.97967442870140075684e-02) (7, 7.93169736862182617188e-01) (8, 4.40134666860103607178e-02) (0, -2.99719065427780151367e-01) (1, 7.10460007190704345703e-01) (2, -7.08482116460800170898e-02) (3, -2.97749400138854980469e-01) (4, -2.18133002519607543945e-01) (5, -1.43440365791320800781e-01) (6, 1.39557439833879470825e-02) (7, -3.56568321585655212402e-02) (8, 8.20358167402446269989e-04) (0, -1.51394039392471313477e-01) (1, 4.30236130952835083008e-01) (2, 8.46974626183509826660e-02) (3, -4.56345736980438232422e-01) (4, -3.51130425930023193359e-01) (5, -1.64008773863315582275e-02) (6, 2.41113845258951187134e-02) (7, 6.60690590739250183105e-02) (8, 1.11178234219551086426e-01) (0, 1.80360928177833557129e-01) (1, -1.79805070161819458008e-01) (2, 2.52923090010881423950e-03) (3, 1.70450210571289062500e-02) (4, 4.77163374423980712891e-01) (5, 2.40616977214813232422e-01) (6, -8.80172908306121826172e-01) (7, -2.19778671860694885254e-01) (8, -1.62083134055137634277e-02) (0, -2.99304187297821044922e-01) (1, 2.07432791590690612793e-01) (2, 3.33486288785934448242e-01) (3, -3.03514242172241210938e-01) (4, 2.41615712642669677734e-01) (5, 3.13929915428161621094e-01) (6, -5.86746394634246826172e-01) (7, -2.61274874210357666016e-01) (8, 3.92747372388839721680e-01) (9, 1.49029791355133056641e-01) (10, -9.70812663435935974121e-02) (11, 7.00072646141052246094e-02) (12, -5.08545339107513427734e-01) (13, 1.19460356235504150391e+00) (14, 6.75900757312774658203e-01) (15, -4.33041341602802276611e-03) (16, -1.67009010910987854004e-01) (17, 2.36064475029706954956e-02) (18, -8.25150489807128906250e-01) (19, 1.63927286863327026367e-01) 
